digraph Tree {
node [shape=box, style="filled", color="black"] ;
0 [label="pickup_longitude <= -73.886\nmse = 392952.111\nsamples = 546965\nvalue = 833.033", fillcolor="#f9e3d3"] ;
1 [label="dropoff_longitude <= -73.888\nmse = 301208.293\nsamples = 519881\nvalue = 773.848", fillcolor="#fae5d6"] ;
0 -> 1 [labeldistance=2.5, labelangle=45, headlabel="True"] ;
2 [label="dropoff_latitude <= 40.701\nmse = 249911.982\nsamples = 505269\nvalue = 739.25", fillcolor="#fae6d8"] ;
1 -> 2 ;
3 [label="pickup_latitude <= 40.731\nmse = 550366.442\nsamples = 18595\nvalue = 1363.172", fillcolor="#f5cfb3"] ;
2 -> 3 ;
4 [label="(...)", fillcolor="#C0C0C0"] ;
3 -> 4 ;
169 [label="(...)", fillcolor="#C0C0C0"] ;
3 -> 169 ;
374 [label="dropoff_longitude <= -73.937\nmse = 222990.144\nsamples = 486674\nvalue = 715.411", fillcolor="#fae7da"] ;
2 -> 374 ;
375 [label="(...)", fillcolor="#C0C0C0"] ;
374 -> 375 ;
780 [label="(...)", fillcolor="#C0C0C0"] ;
374 -> 780 ;
1023 [label="dropoff_latitude <= 40.69\nmse = 602287.808\nsamples = 14612\nvalue = 1970.22", fillcolor="#f0b88f"] ;
1 -> 1023 ;
1024 [label="hour_of_day <= 12.5\nmse = 488996.021\nsamples = 4472\nvalue = 2567.17", fillcolor="#eca16c"] ;
1023 -> 1024 ;
1025 [label="(...)", fillcolor="#C0C0C0"] ;
1024 -> 1025 ;
1098 [label="(...)", fillcolor="#C0C0C0"] ;
1024 -> 1098 ;
1171 [label="pickup_longitude <= -73.955\nmse = 425781.872\nsamples = 10140\nvalue = 1706.95", fillcolor="#f2c29f"] ;
1023 -> 1171 ;
1172 [label="(...)", fillcolor="#C0C0C0"] ;
1171 -> 1172 ;
1377 [label="(...)", fillcolor="#C0C0C0"] ;
1171 -> 1377 ;
1438 [label="dropoff_longitude <= -73.93\nmse = 796118.314\nsamples = 27084\nvalue = 1969.092", fillcolor="#f0b88f"] ;
0 -> 1438 [labeldistance=2.5, labelangle=-45, headlabel="False"] ;
1439 [label="pickup_latitude <= 40.684\nmse = 585672.321\nsamples = 20657\nvalue = 2213.877", fillcolor="#eeaf81"] ;
1438 -> 1439 ;
1440 [label="hour_of_day <= 19.5\nmse = 428869.198\nsamples = 8793\nvalue = 2606.924", fillcolor="#eba06a"] ;
1439 -> 1440 ;
1441 [label="(...)", fillcolor="#C0C0C0"] ;
1440 -> 1441 ;
1576 [label="(...)", fillcolor="#C0C0C0"] ;
1440 -> 1576 ;
1657 [label="hour_of_day <= 18.5\nmse = 502529.874\nsamples = 11864\nvalue = 1922.57", fillcolor="#f1ba92"] ;
1439 -> 1657 ;
1658 [label="(...)", fillcolor="#C0C0C0"] ;
1657 -> 1658 ;
1811 [label="(...)", fillcolor="#C0C0C0"] ;
1657 -> 1811 ;
1918 [label="dropoff_latitude <= 40.793\nmse = 660934.839\nsamples = 6427\nvalue = 1182.333", fillcolor="#f6d6be"] ;
1438 -> 1918 ;
1919 [label="pickup_latitude <= 40.649\nmse = 565001.791\nsamples = 5671\nvalue = 1090.616", fillcolor="#f7d9c4"] ;
1918 -> 1919 ;
1920 [label="(...)", fillcolor="#C0C0C0"] ;
1919 -> 1920 ;
2017 [label="(...)", fillcolor="#C0C0C0"] ;
1919 -> 2017 ;
2100 [label="pickup_latitude <= 40.787\nmse = 844119.327\nsamples = 756\nvalue = 1870.329", fillcolor="#f1bc95"] ;
1918 -> 2100 ;
2101 [label="(...)", fillcolor="#C0C0C0"] ;
2100 -> 2101 ;
2124 [label="(...)", fillcolor="#C0C0C0"] ;
2100 -> 2124 ;
}